{
  "trainedAt": "2026-07-03T19:50:58.474Z",
  "featureLags": 3,
  "minSeasonGp": 10,
  "skaterModels": [
    {
      "target": "goals",
      "isGoalie": false,
      "featureNames": [
        "lag1_gp",
        "lag2_gp",
        "lag3_gp",
        "ewma_gp",
        "trend_gp",
        "pos_C",
        "pos_LW",
        "pos_RW",
        "pos_D",
        "age",
        "height_in",
        "weight_lb",
        "shoots_L",
        "draft_round",
        "draft_overall_pick",
        "years_since_draft",
        "cap_hit_m",
        "contract_years_remaining",
        "coach_id_norm",
        "team_gf_pg",
        "team_ga_pg",
        "team_goal_diff_pg",
        "team_league_rank_norm",
        "teams_in_lag_window",
        "lag1_teamElo",
        "lag2_teamElo",
        "lag3_teamElo",
        "ewma_teamElo",
        "trend_teamElo",
        "lag1_teamPointPctg",
        "lag2_teamPointPctg",
        "lag3_teamPointPctg",
        "ewma_teamPointPctg",
        "trend_teamPointPctg",
        "lag1_teamGoalsForPerGame",
        "lag2_teamGoalsForPerGame",
        "lag3_teamGoalsForPerGame",
        "ewma_teamGoalsForPerGame",
        "trend_teamGoalsForPerGame",
        "lag1_teamGoalsAgainstPerGame",
        "lag2_teamGoalsAgainstPerGame",
        "lag3_teamGoalsAgainstPerGame",
        "ewma_teamGoalsAgainstPerGame",
        "trend_teamGoalsAgainstPerGame",
        "lag1_teamGoalDiffPerGame",
        "lag2_teamGoalDiffPerGame",
        "lag3_teamGoalDiffPerGame",
        "ewma_teamGoalDiffPerGame",
        "trend_teamGoalDiffPerGame",
        "lag1_teamLeagueRank",
        "lag2_teamLeagueRank",
        "lag3_teamLeagueRank",
        "ewma_teamLeagueRank",
        "trend_teamLeagueRank",
        "lag1_capHitUsd",
        "lag2_capHitUsd",
        "lag3_capHitUsd",
        "ewma_capHitUsd",
        "trend_capHitUsd",
        "lag1_coachTenureSeasons",
        "lag2_coachTenureSeasons",
        "lag3_coachTenureSeasons",
        "ewma_coachTenureSeasons",
        "trend_coachTenureSeasons",
        "lag1_toiPerGame_pg",
        "lag2_toiPerGame_pg",
        "lag3_toiPerGame_pg",
        "ewma_toiPerGame_pg",
        "trend_toiPerGame_pg",
        "lag1_evToiPerGame_pg",
        "lag2_evToiPerGame_pg",
        "lag3_evToiPerGame_pg",
        "ewma_evToiPerGame_pg",
        "trend_evToiPerGame_pg",
        "lag1_satFor60_pg",
        "lag2_satFor60_pg",
        "lag3_satFor60_pg",
        "ewma_satFor60_pg",
        "trend_satFor60_pg",
        "lag1_shotsFor60_pg",
        "lag2_shotsFor60_pg",
        "lag3_shotsFor60_pg",
        "ewma_shotsFor60_pg",
        "trend_shotsFor60_pg",
        "lag1_xGoals_pg",
        "lag2_xGoals_pg",
        "lag3_xGoals_pg",
        "ewma_xGoals_pg",
        "trend_xGoals_pg",
        "lag1_xGoalsPer60_pg",
        "lag2_xGoalsPer60_pg",
        "lag3_xGoalsPer60_pg",
        "ewma_xGoalsPer60_pg",
        "trend_xGoalsPer60_pg",
        "lag1_goalsAboveExpected_pg",
        "lag2_goalsAboveExpected_pg",
        "lag3_goalsAboveExpected_pg",
        "ewma_goalsAboveExpected_pg",
        "trend_goalsAboveExpected_pg",
        "lag1_flurryAdjustedxGoals_pg",
        "lag2_flurryAdjustedxGoals_pg",
        "lag3_flurryAdjustedxGoals_pg",
        "ewma_flurryAdjustedxGoals_pg",
        "trend_flurryAdjustedxGoals_pg",
        "lag1_shootingPct_pg",
        "lag2_shootingPct_pg",
        "lag3_shootingPct_pg",
        "ewma_shootingPct_pg",
        "trend_shootingPct_pg",
        "lag1_shootingPct5v5_pg",
        "lag2_shootingPct5v5_pg",
        "lag3_shootingPct5v5_pg",
        "ewma_shootingPct5v5_pg",
        "trend_shootingPct5v5_pg",
        "lag1_onIceShootingPct_pg",
        "lag2_onIceShootingPct_pg",
        "lag3_onIceShootingPct_pg",
        "ewma_onIceShootingPct_pg",
        "trend_onIceShootingPct_pg",
        "lag1_highDangerxGoals_pg",
        "lag2_highDangerxGoals_pg",
        "lag3_highDangerxGoals_pg",
        "ewma_highDangerxGoals_pg",
        "trend_highDangerxGoals_pg",
        "lag1_highDangerGoals_pg",
        "lag2_highDangerGoals_pg",
        "lag3_highDangerGoals_pg",
        "ewma_highDangerGoals_pg",
        "trend_highDangerGoals_pg",
        "lag1_ppGoalsPer60_pg",
        "lag2_ppGoalsPer60_pg",
        "lag3_ppGoalsPer60_pg",
        "ewma_ppGoalsPer60_pg",
        "trend_ppGoalsPer60_pg",
        "lag1_evGoals_pg",
        "lag2_evGoals_pg",
        "lag3_evGoals_pg",
        "ewma_evGoals_pg",
        "trend_evGoals_pg",
        "lag1_points_pg",
        "lag2_points_pg",
        "lag3_points_pg",
        "ewma_points_pg",
        "trend_points_pg",
        "lag1_satRelative_pg",
        "lag2_satRelative_pg",
        "lag3_satRelative_pg",
        "ewma_satRelative_pg",
        "trend_satRelative_pg",
        "lag1_gameScore_pg",
        "lag2_gameScore_pg",
        "lag3_gameScore_pg",
        "ewma_gameScore_pg",
        "trend_gameScore_pg",
        "ewma_shots_cross",
        "ewma_xGoals_cross",
        "ewma_powerplayPoints_cross",
        "ewma_assists_cross",
        "lag1_goals_pg",
        "lag2_goals_pg",
        "lag3_goals_pg",
        "ewma_goals_pg",
        "trend_goals_pg"
      ],
      "means": [
        60.270798254480404,
        65.81870409012262,
        67.8854057119253,
        66.79540723158341,
        0.17819562515597004,
        0.3094945906704642,
        0.19004284612085767,
        0.1518925851318604,
        0.34856997807682855,
        19.579829604839457,
        72.99066930183422,
        199.1256665042276,
        0.439499842374823,
        0.29467855624278505,
        0.21753814357761753,
        0.44272689362411444,
        1.679560021402633,
        0,
        117.61762915261944,
        3.0726373902955952,
        3.0341982095876143,
        0.03843918070798321,
        0.4914474208317851,
        0.48109897361619086,
        512.3899653501037,
        545.2915220530206,
        553.0277438175748,
        552.9817222749647,
        0.10831188931448443,
        0.5183954503896676,
        0.552961480774397,
        0.5610396994710778,
        0.5611419120882915,
        0.02237314902299383,
        2.764542513093621,
        2.982128646703942,
        3.0391749765408913,
        3.029697991711288,
        0.013093910086882429,
        2.7212942817260704,
        2.931860586279336,
        2.9888701952884515,
        2.982285149693034,
        0.012923467192686165,
        0.043248231367542404,
        0.05026806042458956,
        0.05030478125245408,
        0.08923188800801211,
        -0.293463582437845,
        0.44040016363804146,
        0.4736364724353534,
        0.48278913726669165,
        0.4829255541844485,
        0.7640725861803778,
        0.37749062255843596,
        0.6617040903214643,
        1.0769515024431116,
        1.076967092567837,
        -0.00008909493332293714,
        7.271873749492475,
        8.582883283706861,
        9.568433005030785,
        9.195393601994649,
        0.10754354573193445,
        15.470915369299279,
        16.467165636910792,
        16.642589233975364,
        16.63516326462814,
        0.005979570650301256,
        0,
        0,
        0,
        0,
        0,
        10.486922303437575,
        11.206880753830298,
        11.325874398296815,
        11.333044945829828,
        0.01426940065083614,
        5.694377513279995,
        5.997401282062322,
        5.9278216089194755,
        6.003020633947244,
        0.003983539097538566,
        0.14340976336719863,
        0.15356053580102513,
        0.15534418706004868,
        0.15466566202578771,
        0.07293750847693296,
        0.5693924393843927,
        0.6074121005284547,
        0.6148623344321774,
        0.6139974127531466,
        0.04381203494836345,
        0.0037492626710429154,
        0.0021196394596899835,
        0.000298623470794542,
        0.004419103430746429,
        -0.6765057796746005,
        0.13768598388373526,
        0.14708085226299267,
        0.14847580494345983,
        0.14802676034421405,
        0.06860918491692487,
        0.08176562770160815,
        0.0871044939807757,
        0.08967579554657144,
        0.08933845506538661,
        0.13259067059004967,
        0,
        0,
        0,
        0,
        0,
        0,
        0,
        0,
        0,
        0,
        0.048435173696892535,
        0.05372580898768878,
        0.05602284907592218,
        0.05482498562610554,
        0.1973869613085963,
        0.04717108937223922,
        0.04967705994648771,
        0.04903921846914131,
        0.04972456447724996,
        0.05137581792555848,
        0,
        0,
        0,
        0,
        0,
        0.12097118564195032,
        0.12722246784795196,
        0.12776610971623745,
        0.1283779861122872,
        0.15584137230242062,
        0.4225131912062672,
        0.44649973262678816,
        0.44811385761324574,
        0.4482934547407235,
        0.08639057103788507,
        0,
        0,
        0,
        0,
        0,
        29.649196059936543,
        31.961646841619316,
        32.23644500167394,
        31.998085522384674,
        0.6922718026291014,
        1.717761091558362,
        0.15466566202578771,
        0.09922816249748866,
        0.28155326502709505,
        0.1583901770732647,
        0.16648888593771485,
        0.16636486777820392,
        0.16720193271249784,
        0.129137190378347
      ],
      "stds": [
        28.174690071840697,
        23.687229112417864,
        21.900586212772954,
        18.349780862708826,
        0.7771480291212305,
        0.46236555015234404,
        0.3924028744638756,
        0.3589790560287373,
        0.47660025314096377,
        13.45379781292824,
        1.862856985371362,
        14.000815083368954,
        0.4964124049687033,
        0.2588394269943497,
        0.245486096743455,
        0.24297381638830093,
        2.8352801776463186,
        1,
        147.59238375154106,
        0.3536418849396265,
        0.36006896791859133,
        0.5769622843167135,
        0.2832827647434321,
        0.20781734828262086,
        241.63975693569918,
        207.68557038823343,
        196.4921166030071,
        157.88508211181235,
        0.5485379502934794,
        0.1833912672907015,
        0.12754453324612358,
        0.10501955896712727,
        0.08690964304234997,
        0.22071363135011676,
        0.9069419025026094,
        0.570548529536305,
        0.4115285155792163,
        0.3567368889043963,
        0.13578920307990122,
        0.8977533596528384,
        0.5678076071437473,
        0.4212983026969101,
        0.35876224411515584,
        0.1421310201749839,
        0.5652659870021288,
        0.5850902782466421,
        0.5827124345162744,
        0.5084508196798544,
        3.1815541464341677,
        0.2985584771552967,
        0.2847615013313986,
        0.2813545783198773,
        0.223458373912151,
        3.0137826864580894,
        1.6094598086410212,
        2.063848999836148,
        2.4901507798544498,
        2.490195537025178,
        0.00925627578880157,
        4.733973093143174,
        4.769911815910692,
        4.974363485622367,
        4.5534416157411775,
        0.52417337018724,
        5.9623410233409935,
        4.511139520083636,
        4.065607831781318,
        3.9249520883566786,
        0.1271788018971046,
        1,
        1,
        1,
        1,
        1,
        4.342338660083041,
        3.5215907335060135,
        3.2179569259985024,
        3.0167842421261755,
        0.1936776033267675,
        2.6206886535903005,
        2.2362295410054607,
        2.0721942993891216,
        1.9524189390366609,
        0.27711969861849123,
        0.10529858108027788,
        0.1034002162110082,
        0.10341246711201924,
        0.0982723333882497,
        0.5145754165349925,
        0.3912052135161494,
        0.3783343838517998,
        0.37498366282361034,
        0.3601926210847593,
        0.3439575274360981,
        0.05365070773385808,
        0.05430683802931031,
        0.05406000681135924,
        0.046387908227918134,
        13.073132702298167,
        0.10034133100532608,
        0.09807704010300451,
        0.0977898480216703,
        0.0931396824295368,
        0.5041247422651893,
        0.05262607396972025,
        0.049163963390414234,
        0.04941567198020867,
        0.043363710932291195,
        0.7944234174423417,
        1,
        1,
        1,
        1,
        1,
        1,
        1,
        1,
        1,
        1,
        0.047404856978831886,
        0.04939421267138448,
        0.05112661330654512,
        0.04646544006389486,
        1.1175229350665603,
        0.052205198006211734,
        0.05206570025697558,
        0.051619544280587557,
        0.04676737690865174,
        0.9305644136480161,
        1,
        1,
        1,
        1,
        1,
        0.09622198328981252,
        0.09335203225367071,
        0.09242602811344196,
        0.08410411101918795,
        0.9078112011297814,
        0.29265198434627515,
        0.2824299414699502,
        0.28060520858753657,
        0.2654926187715446,
        0.597738913190009,
        1,
        1,
        1,
        1,
        1,
        24.7495639071825,
        24.90350210818239,
        24.86941894070597,
        22.793298031515793,
        13.57097583292456,
        0.7308690072393726,
        0.0982723333882497,
        0.11521078260330309,
        0.16754493482839322,
        0.13425120779205288,
        0.13189651798223911,
        0.13082346212488774,
        0.12232939598848835,
        0.8479410628732466
      ],
      "weights": [
        0.0013218199015393864,
        -0.0029275374782385525,
        -0.0042278429197161555,
        0.004648851330066142,
        -0.00006826639191819393,
        0.004121230789394372,
        0.0046626542850554484,
        0.004370843674970163,
        -0.011129233328873214,
        -0.0004907397058019315,
        -0.00028050978819027327,
        0.0025711177918031894,
        -0.0019518398061417344,
        0.011640288038853815,
        -0.012321737904155486,
        -0.007628045250918573,
        -0.002991171729410954,
        0,
        0.0017315060303774376,
        0.007198260574318742,
        0.004581579898896946,
        0.001552825403855008,
        -0.0010307743264640213,
        -0.0016984786988600185,
        -0.001837130681622669,
        -0.0033902577169633505,
        -0.0021201148482307957,
        0.00010806135340139094,
        0.0023179618106507556,
        0.0008427159189899181,
        0.0031512878180025216,
        -0.001490171327508032,
        0.0007290207395273486,
        -0.002886369427299732,
        0.001096251124190462,
        -0.0011237302021515582,
        -0.0030567614652406145,
        0.00040697380123059373,
        -0.001179745322003266,
        0.0011565927948792277,
        -0.002722172164641918,
        0.002526489300096247,
        -0.0006172076890946858,
        -0.004075930880962415,
        -0.00007801457751759263,
        0.001545962191198617,
        -0.0039854137729399206,
        0.0033841482728779147,
        -0.00006816306104055106,
        0.0006079056987476776,
        0.004021495794200971,
        -0.0031937664643095637,
        -0.006677931603946677,
        0.001333770865524661,
        -0.004609808012188304,
        0.0041946372956594225,
        -0.00016618762338846302,
        -0.00017192481318089898,
        0.0011284493330769461,
        -0.0021463685703373672,
        0.0007092234135876511,
        -0.0007769312424084561,
        0.0012290302640934035,
        0.0013555328333325488,
        -0.003502438090787584,
        0.005222320772769812,
        0.0026078231461926413,
        -0.0029483245833574734,
        0.004636684126437997,
        0,
        0,
        0,
        0,
        0,
        -0.0032583609715987,
        0.00128542605211532,
        0.001003994595458231,
        0.0018483534924126196,
        -0.0009336352351387774,
        -0.00326968051303701,
        -0.007416552740758435,
        -0.0007521434329434232,
        -0.0015635442005005283,
        -0.0011478965761289846,
        0.0029327394675778334,
        0.00044241317741060157,
        0.00518125061053778,
        0.007558091184395086,
        -0.0009100282865655547,
        0.003143781479147147,
        0.009693820803681285,
        -0.007711072722123751,
        0.004123937068156396,
        0.0014899283253906365,
        -0.0023941108684411,
        -0.002602294414983989,
        -0.010797359429595628,
        0.003066258725999449,
        -0.0019808975795620213,
        0.0003548644906812407,
        -0.002979294984078613,
        0.007357782608600673,
        0.007377119477039262,
        0.00005434269839915886,
        -0.0010115415480818136,
        -0.005524962850351717,
        -0.0036901695586624736,
        -0.007632763744318251,
        0.0012038163056022585,
        0,
        0,
        0,
        0,
        0,
        0,
        0,
        0,
        0,
        0,
        -0.006041442406438409,
        -0.007749572099273217,
        -0.01231070346914928,
        -0.004599917518074135,
        -0.00011631726937382071,
        0.0005114682337407331,
        -0.0007021050689257129,
        0.004993574762451266,
        -0.008119383288526422,
        -0.0007149167405791866,
        0,
        0,
        0,
        0,
        0,
        -0.0008561626984914618,
        -0.0070128825243016245,
        -0.0028127599117747136,
        -0.0038290476323068396,
        -0.0011886843432856798,
        0.006992270810527087,
        0.008090905397907178,
        0.014753375549229062,
        0.010844577807603893,
        -0.00021579676024335607,
        0,
        0,
        0,
        0,
        0,
        -0.0048318445410063275,
        -0.005045403661686708,
        0.0029310992662651713,
        0.0044695683379135775,
        0.00018724165279324247,
        -0.0004294566190908901,
        0.007558091184395228,
        -0.002838396722668592,
        -0.008144489229951616,
        0.01192616374655193,
        0.02286872041141357,
        0.0387518274213829,
        0.03359700549144283,
        -0.001756447204805502
      ],
      "bias": 0.16136970014274357,
      "lambda": 25,
      "blendWeights": {
        "ml": 1,
        "ewma": 0,
        "lag1": 0
      },
      "ewmaBlendWeight": 0,
      "positionGroup": "all"
    },
    {
      "target": "assists",
      "isGoalie": false,
      "featureNames": [
        "lag1_gp",
        "lag2_gp",
        "lag3_gp",
        "ewma_gp",
        "trend_gp",
        "pos_C",
        "pos_LW",
        "pos_RW",
        "pos_D",
        "age",
        "height_in",
        "weight_lb",
        "shoots_L",
        "draft_round",
        "draft_overall_pick",
        "years_since_draft",
        "cap_hit_m",
        "contract_years_remaining",
        "coach_id_norm",
        "team_gf_pg",
        "team_ga_pg",
        "team_goal_diff_pg",
        "team_league_rank_norm",
        "teams_in_lag_window",
        "lag1_teamElo",
        "lag2_teamElo",
        "lag3_teamElo",
        "ewma_teamElo",
        "trend_teamElo",
        "lag1_teamPointPctg",
        "lag2_teamPointPctg",
        "lag3_teamPointPctg",
        "ewma_teamPointPctg",
        "trend_teamPointPctg",
        "lag1_teamGoalsForPerGame",
        "lag2_teamGoalsForPerGame",
        "lag3_teamGoalsForPerGame",
        "ewma_teamGoalsForPerGame",
        "trend_teamGoalsForPerGame",
        "lag1_teamGoalsAgainstPerGame",
        "lag2_teamGoalsAgainstPerGame",
        "lag3_teamGoalsAgainstPerGame",
        "ewma_teamGoalsAgainstPerGame",
        "trend_teamGoalsAgainstPerGame",
        "lag1_teamGoalDiffPerGame",
        "lag2_teamGoalDiffPerGame",
        "lag3_teamGoalDiffPerGame",
        "ewma_teamGoalDiffPerGame",
        "trend_teamGoalDiffPerGame",
        "lag1_teamLeagueRank",
        "lag2_teamLeagueRank",
        "lag3_teamLeagueRank",
        "ewma_teamLeagueRank",
        "trend_teamLeagueRank",
        "lag1_capHitUsd",
        "lag2_capHitUsd",
        "lag3_capHitUsd",
        "ewma_capHitUsd",
        "trend_capHitUsd",
        "lag1_coachTenureSeasons",
        "lag2_coachTenureSeasons",
        "lag3_coachTenureSeasons",
        "ewma_coachTenureSeasons",
        "trend_coachTenureSeasons",
        "lag1_toiPerGame_pg",
        "lag2_toiPerGame_pg",
        "lag3_toiPerGame_pg",
        "ewma_toiPerGame_pg",
        "trend_toiPerGame_pg",
        "lag1_evToiPerGame_pg",
        "lag2_evToiPerGame_pg",
        "lag3_evToiPerGame_pg",
        "ewma_evToiPerGame_pg",
        "trend_evToiPerGame_pg",
        "lag1_satFor60_pg",
        "lag2_satFor60_pg",
        "lag3_satFor60_pg",
        "ewma_satFor60_pg",
        "trend_satFor60_pg",
        "lag1_evPoints_pg",
        "lag2_evPoints_pg",
        "lag3_evPoints_pg",
        "ewma_evPoints_pg",
        "trend_evPoints_pg",
        "lag1_points_pg",
        "lag2_points_pg",
        "lag3_points_pg",
        "ewma_points_pg",
        "trend_points_pg",
        "lag1_takeaways_pg",
        "lag2_takeaways_pg",
        "lag3_takeaways_pg",
        "ewma_takeaways_pg",
        "trend_takeaways_pg",
        "lag1_takeawaysPer60_pg",
        "lag2_takeawaysPer60_pg",
        "lag3_takeawaysPer60_pg",
        "ewma_takeawaysPer60_pg",
        "trend_takeawaysPer60_pg",
        "lag1_onIceXGoalsPct_pg",
        "lag2_onIceXGoalsPct_pg",
        "lag3_onIceXGoalsPct_pg",
        "ewma_onIceXGoalsPct_pg",
        "trend_onIceXGoalsPct_pg",
        "lag1_satRelative_pg",
        "lag2_satRelative_pg",
        "lag3_satRelative_pg",
        "ewma_satRelative_pg",
        "trend_satRelative_pg",
        "lag1_usatRelative_pg",
        "lag2_usatRelative_pg",
        "lag3_usatRelative_pg",
        "ewma_usatRelative_pg",
        "trend_usatRelative_pg",
        "lag1_ppPointsPer60_pg",
        "lag2_ppPointsPer60_pg",
        "lag3_ppPointsPer60_pg",
        "ewma_ppPointsPer60_pg",
        "trend_ppPointsPer60_pg",
        "lag1_ppToiPerGame_pg",
        "lag2_ppToiPerGame_pg",
        "lag3_ppToiPerGame_pg",
        "ewma_ppToiPerGame_pg",
        "trend_ppToiPerGame_pg",
        "lag1_gameScore_pg",
        "lag2_gameScore_pg",
        "lag3_gameScore_pg",
        "ewma_gameScore_pg",
        "trend_gameScore_pg",
        "lag1_xGoalsPer60_pg",
        "lag2_xGoalsPer60_pg",
        "lag3_xGoalsPer60_pg",
        "ewma_xGoalsPer60_pg",
        "trend_xGoalsPer60_pg",
        "lag1_evenStrengthGoalDiff_pg",
        "lag2_evenStrengthGoalDiff_pg",
        "lag3_evenStrengthGoalDiff_pg",
        "ewma_evenStrengthGoalDiff_pg",
        "trend_evenStrengthGoalDiff_pg",
        "lag1_plusMinus_pg",
        "lag2_plusMinus_pg",
        "lag3_plusMinus_pg",
        "ewma_plusMinus_pg",
        "trend_plusMinus_pg",
        "ewma_goals_cross",
        "ewma_points_cross",
        "ewma_evPoints_cross",
        "ewma_shots_cross",
        "lag1_assists_pg",
        "lag2_assists_pg",
        "lag3_assists_pg",
        "ewma_assists_pg",
        "trend_assists_pg"
      ],
      "means": [
        60.270798254480404,
        65.81870409012262,
        67.8854057119253,
        66.79540723158341,
        0.17819562515597004,
        0.3094945906704642,
        0.19004284612085767,
        0.1518925851318604,
        0.34856997807682855,
        19.579829604839457,
        72.99066930183422,
        199.1256665042276,
        0.439499842374823,
        0.29467855624278505,
        0.21753814357761753,
        0.44272689362411444,
        1.679560021402633,
        0,
        117.61762915261944,
        3.0726373902955952,
        3.0341982095876143,
        0.03843918070798321,
        0.4914474208317851,
        0.48109897361619086,
        512.3899653501037,
        545.2915220530206,
        553.0277438175748,
        552.9817222749647,
        0.10831188931448443,
        0.5183954503896676,
        0.552961480774397,
        0.5610396994710778,
        0.5611419120882915,
        0.02237314902299383,
        2.764542513093621,
        2.982128646703942,
        3.0391749765408913,
        3.029697991711288,
        0.013093910086882429,
        2.7212942817260704,
        2.931860586279336,
        2.9888701952884515,
        2.982285149693034,
        0.012923467192686165,
        0.043248231367542404,
        0.05026806042458956,
        0.05030478125245408,
        0.08923188800801211,
        -0.293463582437845,
        0.44040016363804146,
        0.4736364724353534,
        0.48278913726669165,
        0.4829255541844485,
        0.7640725861803778,
        0.37749062255843596,
        0.6617040903214643,
        1.0769515024431116,
        1.076967092567837,
        -0.00008909493332293714,
        7.271873749492475,
        8.582883283706861,
        9.568433005030785,
        9.195393601994649,
        0.10754354573193445,
        15.470915369299279,
        16.467165636910792,
        16.642589233975364,
        16.63516326462814,
        0.005979570650301256,
        0,
        0,
        0,
        0,
        0,
        10.486922303437575,
        11.206880753830298,
        11.325874398296815,
        11.333044945829828,
        0.01426940065083614,
        0.3180895804979295,
        0.33722649904929386,
        0.3400953228792185,
        0.339834707950559,
        0.09610832306654864,
        0.4225131912062672,
        0.44649973262678816,
        0.44811385761324574,
        0.4482934547407235,
        0.08639057103788507,
        0.373479173194003,
        0.3892656112941209,
        0.3656473819604021,
        0.37867444465489625,
        0.08597569993597874,
        0,
        0,
        0,
        0,
        0,
        0.4651913838812187,
        0.49375424441751553,
        0.4973928611646405,
        0.4994556027388842,
        -0.0005815268722091279,
        0,
        0,
        0,
        0,
        0,
        0,
        0,
        0,
        0,
        0,
        0,
        0,
        0,
        0,
        0,
        0,
        0,
        0,
        0,
        0,
        29.649196059936543,
        31.961646841619316,
        32.23644500167394,
        31.998085522384674,
        0.6922718026291014,
        0.5693924393843927,
        0.6074121005284547,
        0.6148623344321774,
        0.6139974127531466,
        0.04381203494836345,
        0,
        0,
        0,
        0,
        0,
        -0.0040074398992329145,
        -0.005774034980820902,
        -0.00917731152993751,
        0.00492701846547266,
        -0.3799906515225549,
        0.16720193271249784,
        0.4482934547407235,
        0.339834707950559,
        1.717761091558362,
        0.2641230141330027,
        0.2800108466890752,
        0.2817489898350436,
        0.28155326502709505,
        0.1179403046253849
      ],
      "stds": [
        28.174690071840697,
        23.687229112417864,
        21.900586212772954,
        18.349780862708826,
        0.7771480291212305,
        0.46236555015234404,
        0.3924028744638756,
        0.3589790560287373,
        0.47660025314096377,
        13.45379781292824,
        1.862856985371362,
        14.000815083368954,
        0.4964124049687033,
        0.2588394269943497,
        0.245486096743455,
        0.24297381638830093,
        2.8352801776463186,
        1,
        147.59238375154106,
        0.3536418849396265,
        0.36006896791859133,
        0.5769622843167135,
        0.2832827647434321,
        0.20781734828262086,
        241.63975693569918,
        207.68557038823343,
        196.4921166030071,
        157.88508211181235,
        0.5485379502934794,
        0.1833912672907015,
        0.12754453324612358,
        0.10501955896712727,
        0.08690964304234997,
        0.22071363135011676,
        0.9069419025026094,
        0.570548529536305,
        0.4115285155792163,
        0.3567368889043963,
        0.13578920307990122,
        0.8977533596528384,
        0.5678076071437473,
        0.4212983026969101,
        0.35876224411515584,
        0.1421310201749839,
        0.5652659870021288,
        0.5850902782466421,
        0.5827124345162744,
        0.5084508196798544,
        3.1815541464341677,
        0.2985584771552967,
        0.2847615013313986,
        0.2813545783198773,
        0.223458373912151,
        3.0137826864580894,
        1.6094598086410212,
        2.063848999836148,
        2.4901507798544498,
        2.490195537025178,
        0.00925627578880157,
        4.733973093143174,
        4.769911815910692,
        4.974363485622367,
        4.5534416157411775,
        0.52417337018724,
        5.9623410233409935,
        4.511139520083636,
        4.065607831781318,
        3.9249520883566786,
        0.1271788018971046,
        1,
        1,
        1,
        1,
        1,
        4.342338660083041,
        3.5215907335060135,
        3.2179569259985024,
        3.0167842421261755,
        0.1936776033267675,
        0.19318751942485005,
        0.18001255466465402,
        0.17716518120349745,
        0.16304775920919776,
        0.6046235544309916,
        0.29265198434627515,
        0.2824299414699502,
        0.28060520858753657,
        0.2654926187715446,
        0.597738913190009,
        0.23595112279784913,
        0.21930313166001086,
        0.20763724280502058,
        0.18404703067643008,
        0.8692972468858279,
        1,
        1,
        1,
        1,
        1,
        0.15561350807993304,
        0.10143680921808486,
        0.08186019371926814,
        0.07341699877896521,
        0.12955015867972594,
        1,
        1,
        1,
        1,
        1,
        1,
        1,
        1,
        1,
        1,
        1,
        1,
        1,
        1,
        1,
        1,
        1,
        1,
        1,
        1,
        24.7495639071825,
        24.90350210818239,
        24.86941894070597,
        22.793298031515793,
        13.57097583292456,
        0.3912052135161494,
        0.3783343838517998,
        0.37498366282361034,
        0.3601926210847593,
        0.3439575274360981,
        1,
        1,
        1,
        1,
        1,
        0.19034857659761045,
        0.1932670270781268,
        0.19511451393265644,
        0.171237726525152,
        2.443725543585479,
        0.12232939598848835,
        0.2654926187715446,
        0.16304775920919776,
        0.7308690072393726,
        0.18659758557967177,
        0.18110486010417653,
        0.1800354210283962,
        0.16754493482839322,
        0.7254762670659353
      ],
      "weights": [
        -0.0021810411998649487,
        -0.000791074939403877,
        -0.002862590746308896,
        -0.0013510032632923388,
        0.0003090861667715969,
        0.002418936929893942,
        -0.0018283259738320738,
        0.0005766408618872395,
        -0.0012756911584628928,
        0.0008494524280255383,
        -0.0008050894978678503,
        0.0009380566763468351,
        0.0014044996422024,
        0.003558099899939728,
        -0.0028363065786802854,
        -0.010495496972655893,
        0.0014109900916507785,
        0,
        0.0020445444244178,
        0.012985405135274295,
        0.008295057092112826,
        0.0027824877750223225,
        -0.0031409175068699484,
        -0.0034518297136726214,
        -0.0017289438676722497,
        0.0005295844673988339,
        0.0009279427876050103,
        -0.0002371523617925051,
        0.0010631191812934479,
        -0.000048094368664975376,
        -0.0012245844326992392,
        -0.0015839655806354019,
        -0.0024349406235406193,
        0.001154541032667574,
        0.0025150348026197577,
        -0.0016017151981260814,
        -0.0034451449020372745,
        -0.002045547192497748,
        -0.001901950763051548,
        -0.000588798123431947,
        -0.0018862922420208748,
        -0.0020966317415837014,
        -0.0010675563774705183,
        -0.0005619282393480593,
        0.004970378559511209,
        0.0002686676554595038,
        -0.0009172070848708116,
        -0.0007328096830312652,
        0.0006775091204577119,
        0.002432972092489862,
        -0.0024550524735886944,
        -0.002546905684554217,
        -0.001425538917605382,
        0.0016818093078571096,
        0.0012515737024370202,
        -0.00048027734133598046,
        -0.0002411972903958369,
        -0.0002449702757498366,
        0.000980026376523002,
        -0.00040381562528431567,
        0.0002732102372458023,
        0.001312067491587701,
        0.00024280023496609638,
        -0.0002810577407108816,
        -0.004154322680560557,
        0.0028722597807228608,
        0.007042114421749696,
        0.003935743305347386,
        0.008043725127139495,
        0,
        0,
        0,
        0,
        0,
        -0.002713539343561118,
        -0.003698787101292906,
        -0.0000013658256389307123,
        -0.001214891255714474,
        0.000028282012966674793,
        -0.0019628600865035555,
        -0.000615460598530128,
        0.0035136045478898503,
        0.0006429933131482872,
        -0.00272833609692141,
        0.00794028586813175,
        0.007432252458517655,
        0.01682408592713647,
        0.013121655386326985,
        0.001485810324618436,
        0.0014192349679801176,
        0.002450703324942349,
        0.004648760140296332,
        0.005083946015889123,
        0.000003875897224398997,
        0,
        0,
        0,
        0,
        0,
        -0.0017585080781609347,
        0.0016783065525274058,
        0.003917055094145403,
        0.004047918023519336,
        -0.0013278768960434313,
        0,
        0,
        0,
        0,
        0,
        0,
        0,
        0,
        0,
        0,
        0,
        0,
        0,
        0,
        0,
        0,
        0,
        0,
        0,
        0,
        0.002483029469317423,
        0.001965019152609705,
        0.013936607261968742,
        0.010536171650368681,
        -0.00020785470139591606,
        -0.005965090708771271,
        -0.007361608702573648,
        -0.005079369268037154,
        -0.0049046714929980376,
        -0.0000037088204280320318,
        0,
        0,
        0,
        0,
        0,
        -0.004876641192637627,
        -0.0035054592242456215,
        -0.0020465841528796934,
        -0.0024441661083090126,
        0.00005115840591559249,
        0.004973696595627737,
        0.013121655386326963,
        0.0006429933131482973,
        0.006208226639878586,
        0.01543965008965752,
        0.014980453767406653,
        0.018434270396934353,
        0.016656116439905302,
        0.0006664096223767776
      ],
      "bias": 0.2761165502482477,
      "lambda": 400,
      "blendWeights": {
        "ml": 1,
        "ewma": 0,
        "lag1": 0
      },
      "ewmaBlendWeight": 0,
      "positionGroup": "all"
    },
    {
      "target": "shots",
      "isGoalie": false,
      "featureNames": [
        "lag1_gp",
        "lag2_gp",
        "lag3_gp",
        "ewma_gp",
        "trend_gp",
        "pos_C",
        "pos_LW",
        "pos_RW",
        "pos_D",
        "age",
        "height_in",
        "weight_lb",
        "shoots_L",
        "draft_round",
        "draft_overall_pick",
        "years_since_draft",
        "cap_hit_m",
        "contract_years_remaining",
        "coach_id_norm",
        "team_gf_pg",
        "team_ga_pg",
        "team_goal_diff_pg",
        "team_league_rank_norm",
        "teams_in_lag_window",
        "lag1_teamElo",
        "lag2_teamElo",
        "lag3_teamElo",
        "ewma_teamElo",
        "trend_teamElo",
        "lag1_teamPointPctg",
        "lag2_teamPointPctg",
        "lag3_teamPointPctg",
        "ewma_teamPointPctg",
        "trend_teamPointPctg",
        "lag1_teamGoalsForPerGame",
        "lag2_teamGoalsForPerGame",
        "lag3_teamGoalsForPerGame",
        "ewma_teamGoalsForPerGame",
        "trend_teamGoalsForPerGame",
        "lag1_teamGoalsAgainstPerGame",
        "lag2_teamGoalsAgainstPerGame",
        "lag3_teamGoalsAgainstPerGame",
        "ewma_teamGoalsAgainstPerGame",
        "trend_teamGoalsAgainstPerGame",
        "lag1_teamGoalDiffPerGame",
        "lag2_teamGoalDiffPerGame",
        "lag3_teamGoalDiffPerGame",
        "ewma_teamGoalDiffPerGame",
        "trend_teamGoalDiffPerGame",
        "lag1_teamLeagueRank",
        "lag2_teamLeagueRank",
        "lag3_teamLeagueRank",
        "ewma_teamLeagueRank",
        "trend_teamLeagueRank",
        "lag1_capHitUsd",
        "lag2_capHitUsd",
        "lag3_capHitUsd",
        "ewma_capHitUsd",
        "trend_capHitUsd",
        "lag1_coachTenureSeasons",
        "lag2_coachTenureSeasons",
        "lag3_coachTenureSeasons",
        "ewma_coachTenureSeasons",
        "trend_coachTenureSeasons",
        "lag1_toiPerGame_pg",
        "lag2_toiPerGame_pg",
        "lag3_toiPerGame_pg",
        "ewma_toiPerGame_pg",
        "trend_toiPerGame_pg",
        "lag1_evToiPerGame_pg",
        "lag2_evToiPerGame_pg",
        "lag3_evToiPerGame_pg",
        "ewma_evToiPerGame_pg",
        "trend_evToiPerGame_pg",
        "lag1_satFor60_pg",
        "lag2_satFor60_pg",
        "lag3_satFor60_pg",
        "ewma_satFor60_pg",
        "trend_satFor60_pg",
        "lag1_shotsFor60_pg",
        "lag2_shotsFor60_pg",
        "lag3_shotsFor60_pg",
        "ewma_shotsFor60_pg",
        "trend_shotsFor60_pg",
        "lag1_totalShotAttempts_pg",
        "lag2_totalShotAttempts_pg",
        "lag3_totalShotAttempts_pg",
        "ewma_totalShotAttempts_pg",
        "trend_totalShotAttempts_pg",
        "lag1_missedShots_pg",
        "lag2_missedShots_pg",
        "lag3_missedShots_pg",
        "ewma_missedShots_pg",
        "trend_missedShots_pg",
        "lag1_xGoalsPer60_pg",
        "lag2_xGoalsPer60_pg",
        "lag3_xGoalsPer60_pg",
        "ewma_xGoalsPer60_pg",
        "trend_xGoalsPer60_pg",
        "lag1_ppShotsPer60_pg",
        "lag2_ppShotsPer60_pg",
        "lag3_ppShotsPer60_pg",
        "ewma_ppShotsPer60_pg",
        "trend_ppShotsPer60_pg",
        "lag1_satPct_pg",
        "lag2_satPct_pg",
        "lag3_satPct_pg",
        "ewma_satPct_pg",
        "trend_satPct_pg",
        "lag1_usatPct_pg",
        "lag2_usatPct_pg",
        "lag3_usatPct_pg",
        "ewma_usatPct_pg",
        "trend_usatPct_pg",
        "lag1_onIceShootingPct_pg",
        "lag2_onIceShootingPct_pg",
        "lag3_onIceShootingPct_pg",
        "ewma_onIceShootingPct_pg",
        "trend_onIceShootingPct_pg",
        "lag1_highDangerShots_pg",
        "lag2_highDangerShots_pg",
        "lag3_highDangerShots_pg",
        "ewma_highDangerShots_pg",
        "trend_highDangerShots_pg",
        "lag1_ppToiPerGame_pg",
        "lag2_ppToiPerGame_pg",
        "lag3_ppToiPerGame_pg",
        "ewma_ppToiPerGame_pg",
        "trend_ppToiPerGame_pg",
        "lag1_goalsAboveExpected_pg",
        "lag2_goalsAboveExpected_pg",
        "lag3_goalsAboveExpected_pg",
        "ewma_goalsAboveExpected_pg",
        "trend_goalsAboveExpected_pg",
        "ewma_goals_cross",
        "ewma_xGoals_cross",
        "ewma_satFor60_cross",
        "ewma_totalShotAttempts_cross",
        "lag1_shots_pg",
        "lag2_shots_pg",
        "lag3_shots_pg",
        "ewma_shots_pg",
        "trend_shots_pg"
      ],
      "means": [
        60.270798254480404,
        65.81870409012262,
        67.8854057119253,
        66.79540723158341,
        0.17819562515597004,
        0.3094945906704642,
        0.19004284612085767,
        0.1518925851318604,
        0.34856997807682855,
        19.579829604839457,
        72.99066930183422,
        199.1256665042276,
        0.439499842374823,
        0.29467855624278505,
        0.21753814357761753,
        0.44272689362411444,
        1.679560021402633,
        0,
        117.61762915261944,
        3.0726373902955952,
        3.0341982095876143,
        0.03843918070798321,
        0.4914474208317851,
        0.48109897361619086,
        512.3899653501037,
        545.2915220530206,
        553.0277438175748,
        552.9817222749647,
        0.10831188931448443,
        0.5183954503896676,
        0.552961480774397,
        0.5610396994710778,
        0.5611419120882915,
        0.02237314902299383,
        2.764542513093621,
        2.982128646703942,
        3.0391749765408913,
        3.029697991711288,
        0.013093910086882429,
        2.7212942817260704,
        2.931860586279336,
        2.9888701952884515,
        2.982285149693034,
        0.012923467192686165,
        0.043248231367542404,
        0.05026806042458956,
        0.05030478125245408,
        0.08923188800801211,
        -0.293463582437845,
        0.44040016363804146,
        0.4736364724353534,
        0.48278913726669165,
        0.4829255541844485,
        0.7640725861803778,
        0.37749062255843596,
        0.6617040903214643,
        1.0769515024431116,
        1.076967092567837,
        -0.00008909493332293714,
        7.271873749492475,
        8.582883283706861,
        9.568433005030785,
        9.195393601994649,
        0.10754354573193445,
        15.470915369299279,
        16.467165636910792,
        16.642589233975364,
        16.63516326462814,
        0.005979570650301256,
        0,
        0,
        0,
        0,
        0,
        10.486922303437575,
        11.206880753830298,
        11.325874398296815,
        11.333044945829828,
        0.01426940065083614,
        5.694377513279995,
        5.997401282062322,
        5.9278216089194755,
        6.003020633947244,
        0.003983539097538566,
        0,
        0,
        0,
        0,
        0,
        0,
        0,
        0,
        0,
        0,
        0.5693924393843927,
        0.6074121005284547,
        0.6148623344321774,
        0.6139974127531466,
        0.04381203494836345,
        0,
        0,
        0,
        0,
        0,
        0,
        0,
        0,
        0,
        0,
        0,
        0,
        0,
        0,
        0,
        0,
        0,
        0,
        0,
        0,
        0.13768627904196545,
        0.1533336683318733,
        0.15988384625890362,
        0.15657913651411115,
        0.14630602237005622,
        0,
        0,
        0,
        0,
        0,
        0.0037492626710429154,
        0.0021196394596899835,
        0.000298623470794542,
        0.004419103430746429,
        -0.6765057796746005,
        0.16720193271249784,
        0.15466566202578771,
        11.333044945829828,
        0,
        1.6434049696375586,
        1.7246649462380401,
        1.6986429896675876,
        1.717761091558362,
        0.0043317198359001125
      ],
      "stds": [
        28.174690071840697,
        23.687229112417864,
        21.900586212772954,
        18.349780862708826,
        0.7771480291212305,
        0.46236555015234404,
        0.3924028744638756,
        0.3589790560287373,
        0.47660025314096377,
        13.45379781292824,
        1.862856985371362,
        14.000815083368954,
        0.4964124049687033,
        0.2588394269943497,
        0.245486096743455,
        0.24297381638830093,
        2.8352801776463186,
        1,
        147.59238375154106,
        0.3536418849396265,
        0.36006896791859133,
        0.5769622843167135,
        0.2832827647434321,
        0.20781734828262086,
        241.63975693569918,
        207.68557038823343,
        196.4921166030071,
        157.88508211181235,
        0.5485379502934794,
        0.1833912672907015,
        0.12754453324612358,
        0.10501955896712727,
        0.08690964304234997,
        0.22071363135011676,
        0.9069419025026094,
        0.570548529536305,
        0.4115285155792163,
        0.3567368889043963,
        0.13578920307990122,
        0.8977533596528384,
        0.5678076071437473,
        0.4212983026969101,
        0.35876224411515584,
        0.1421310201749839,
        0.5652659870021288,
        0.5850902782466421,
        0.5827124345162744,
        0.5084508196798544,
        3.1815541464341677,
        0.2985584771552967,
        0.2847615013313986,
        0.2813545783198773,
        0.223458373912151,
        3.0137826864580894,
        1.6094598086410212,
        2.063848999836148,
        2.4901507798544498,
        2.490195537025178,
        0.00925627578880157,
        4.733973093143174,
        4.769911815910692,
        4.974363485622367,
        4.5534416157411775,
        0.52417337018724,
        5.9623410233409935,
        4.511139520083636,
        4.065607831781318,
        3.9249520883566786,
        0.1271788018971046,
        1,
        1,
        1,
        1,
        1,
        4.342338660083041,
        3.5215907335060135,
        3.2179569259985024,
        3.0167842421261755,
        0.1936776033267675,
        2.6206886535903005,
        2.2362295410054607,
        2.0721942993891216,
        1.9524189390366609,
        0.27711969861849123,
        1,
        1,
        1,
        1,
        1,
        1,
        1,
        1,
        1,
        1,
        0.3912052135161494,
        0.3783343838517998,
        0.37498366282361034,
        0.3601926210847593,
        0.3439575274360981,
        1,
        1,
        1,
        1,
        1,
        1,
        1,
        1,
        1,
        1,
        1,
        1,
        1,
        1,
        1,
        1,
        1,
        1,
        1,
        1,
        0.12782748676195832,
        0.13335975540773987,
        0.13808394379877373,
        0.1257442032494783,
        0.9169261251258313,
        1,
        1,
        1,
        1,
        1,
        0.05365070773385808,
        0.05430683802931031,
        0.05406000681135924,
        0.046387908227918134,
        13.073132702298167,
        0.12232939598848835,
        0.0982723333882497,
        3.0167842421261755,
        1,
        0.8736231893507157,
        0.7892870891634812,
        0.7625389521572321,
        0.7308690072393726,
        0.2936570848358131
      ],
      "weights": [
        -0.011586461135276822,
        -0.04005990553846848,
        -0.044733687855426404,
        0.058186721732638405,
        0.0002422795704678481,
        0.011550475848440243,
        0.003897916127264334,
        0.012662312256427038,
        -0.023952149497653563,
        -0.00267576320191717,
        -0.002548577182098634,
        0.01105625623302219,
        -0.0023065275465597905,
        0.10022686017391513,
        -0.0944027483921562,
        -0.05945202482854025,
        -0.025564850770928252,
        0,
        -0.0011420996790099758,
        0.007393928674779658,
        0.009717638591088188,
        -0.0015325390384822316,
        0.001879049731301608,
        -0.010080736761719014,
        -0.01015062045978481,
        -0.025510958985172767,
        -0.02665063847084225,
        -0.03231495031719885,
        -0.0008624062868517439,
        -0.004715717831786593,
        -0.001788366882651436,
        0.0024767883562486206,
        -0.019444514659470426,
        -0.005264690875396662,
        -0.006128730499245559,
        0.0025968921241234194,
        0.00887182533403525,
        -0.012596852655775957,
        -0.00196141272416871,
        -0.00443399970942736,
        -0.0036985948739067464,
        0.007913667080125425,
        -0.02724728680189905,
        -0.0029972747540589805,
        -0.002791189279587642,
        0.0061216933883554165,
        0.0005439983471582635,
        0.009539917089394846,
        0.0010502907672644323,
        -0.011788122343185931,
        -0.008408749644604143,
        -0.03335582974392041,
        -0.05148491413616272,
        0.0042137157690377725,
        -0.013744034593837941,
        0.010839257319665466,
        0.0030655301120394735,
        0.0034908199657397295,
        0.005750880151291983,
        -0.010024754920712902,
        0.020624088398669766,
        0.004909450652427596,
        -0.024952774958591023,
        0.006753965934351856,
        0.0021747635966275,
        0.025268481633634546,
        0.05813792039079368,
        -0.020047110663725252,
        0.020652098833338805,
        0,
        0,
        0,
        0,
        0,
        0.017726520571952932,
        0.011510915305636565,
        0.03641164649935457,
        -0.0007921402287427516,
        0.012639444330375709,
        0.0058348644334270915,
        -0.01120737601596056,
        -0.010670600885784575,
        -0.04484485784888379,
        -0.013164003421243879,
        0,
        0,
        0,
        0,
        0,
        0,
        0,
        0,
        0,
        0,
        -0.005961904497350666,
        -0.0010266493229913669,
        -0.016429078591129114,
        0.04475023445685606,
        -0.009254852328945264,
        0,
        0,
        0,
        0,
        0,
        0,
        0,
        0,
        0,
        0,
        0,
        0,
        0,
        0,
        0,
        0,
        0,
        0,
        0,
        0,
        -0.01593287661786765,
        -0.03950411954083274,
        -0.06612135099759765,
        -0.007521368637801152,
        0.00870902126011204,
        0,
        0,
        0,
        0,
        0,
        -0.01442702900191178,
        -0.01604748247286226,
        0.000018447870313281903,
        0.0058107198085424,
        -0.0044308457691577445,
        0.12396427863019313,
        0.07180322132917817,
        -0.0007921402287426939,
        0,
        0.030377518138763725,
        0.0776359139150324,
        0.30811848017495264,
        0.1725440228529732,
        -0.002606838910951311
      ],
      "bias": 1.6337152558459707,
      "lambda": 25,
      "blendWeights": {
        "ml": 1,
        "ewma": 0,
        "lag1": 0
      },
      "ewmaBlendWeight": 0,
      "positionGroup": "all"
    },
    {
      "target": "blocks",
      "isGoalie": false,
      "featureNames": [
        "lag1_gp",
        "lag2_gp",
        "lag3_gp",
        "ewma_gp",
        "trend_gp",
        "pos_C",
        "pos_LW",
        "pos_RW",
        "pos_D",
        "age",
        "height_in",
        "weight_lb",
        "shoots_L",
        "draft_round",
        "draft_overall_pick",
        "years_since_draft",
        "cap_hit_m",
        "contract_years_remaining",
        "coach_id_norm",
        "team_gf_pg",
        "team_ga_pg",
        "team_goal_diff_pg",
        "team_league_rank_norm",
        "teams_in_lag_window",
        "lag1_teamElo",
        "lag2_teamElo",
        "lag3_teamElo",
        "ewma_teamElo",
        "trend_teamElo",
        "lag1_teamPointPctg",
        "lag2_teamPointPctg",
        "lag3_teamPointPctg",
        "ewma_teamPointPctg",
        "trend_teamPointPctg",
        "lag1_teamGoalsForPerGame",
        "lag2_teamGoalsForPerGame",
        "lag3_teamGoalsForPerGame",
        "ewma_teamGoalsForPerGame",
        "trend_teamGoalsForPerGame",
        "lag1_teamGoalsAgainstPerGame",
        "lag2_teamGoalsAgainstPerGame",
        "lag3_teamGoalsAgainstPerGame",
        "ewma_teamGoalsAgainstPerGame",
        "trend_teamGoalsAgainstPerGame",
        "lag1_teamGoalDiffPerGame",
        "lag2_teamGoalDiffPerGame",
        "lag3_teamGoalDiffPerGame",
        "ewma_teamGoalDiffPerGame",
        "trend_teamGoalDiffPerGame",
        "lag1_teamLeagueRank",
        "lag2_teamLeagueRank",
        "lag3_teamLeagueRank",
        "ewma_teamLeagueRank",
        "trend_teamLeagueRank",
        "lag1_capHitUsd",
        "lag2_capHitUsd",
        "lag3_capHitUsd",
        "ewma_capHitUsd",
        "trend_capHitUsd",
        "lag1_coachTenureSeasons",
        "lag2_coachTenureSeasons",
        "lag3_coachTenureSeasons",
        "ewma_coachTenureSeasons",
        "trend_coachTenureSeasons",
        "lag1_blockedShotsPer60_pg",
        "lag2_blockedShotsPer60_pg",
        "lag3_blockedShotsPer60_pg",
        "ewma_blockedShotsPer60_pg",
        "trend_blockedShotsPer60_pg",
        "lag1_hitsPer60_pg",
        "lag2_hitsPer60_pg",
        "lag3_hitsPer60_pg",
        "ewma_hitsPer60_pg",
        "trend_hitsPer60_pg",
        "lag1_dZoneStartPct_pg",
        "lag2_dZoneStartPct_pg",
        "lag3_dZoneStartPct_pg",
        "ewma_dZoneStartPct_pg",
        "trend_dZoneStartPct_pg",
        "lag1_zoneStartPct5v5_pg",
        "lag2_zoneStartPct5v5_pg",
        "lag3_zoneStartPct5v5_pg",
        "ewma_zoneStartPct5v5_pg",
        "trend_zoneStartPct5v5_pg",
        "lag1_hits_pg",
        "lag2_hits_pg",
        "lag3_hits_pg",
        "ewma_hits_pg",
        "trend_hits_pg",
        "lag1_giveaways_pg",
        "lag2_giveaways_pg",
        "lag3_giveaways_pg",
        "ewma_giveaways_pg",
        "trend_giveaways_pg",
        "lag1_toiPerGame_pg",
        "lag2_toiPerGame_pg",
        "lag3_toiPerGame_pg",
        "ewma_toiPerGame_pg",
        "trend_toiPerGame_pg",
        "lag1_shiftsPerGame_pg",
        "lag2_shiftsPerGame_pg",
        "lag3_shiftsPerGame_pg",
        "ewma_shiftsPerGame_pg",
        "trend_shiftsPerGame_pg",
        "lag1_evenStrengthGoalDiff_pg",
        "lag2_evenStrengthGoalDiff_pg",
        "lag3_evenStrengthGoalDiff_pg",
        "ewma_evenStrengthGoalDiff_pg",
        "trend_evenStrengthGoalDiff_pg",
        "lag1_satRelative_pg",
        "lag2_satRelative_pg",
        "lag3_satRelative_pg",
        "ewma_satRelative_pg",
        "trend_satRelative_pg",
        "ewma_hits_cross",
        "ewma_blockedShotsPer60_cross",
        "ewma_dZoneStartPct_cross",
        "lag1_blocks_pg",
        "lag2_blocks_pg",
        "lag3_blocks_pg",
        "ewma_blocks_pg",
        "trend_blocks_pg"
      ],
      "means": [
        58.32603930887356,
        63.735188144375996,
        65.49158018290002,
        64.57292309718898,
        0.20218053349113638,
        0,
        0,
        0,
        1,
        19.936324830792937,
        73.47215457880863,
        201.84791182417734,
        0.4095189011116596,
        0.3045568651597506,
        0.22537254997981945,
        0.44621932045260904,
        1.7391335221933009,
        0,
        118.09375917780997,
        3.073119912262288,
        3.032942097830662,
        0.04017781443162437,
        0.4897974281293847,
        0.4777492508077766,
        502.68176520939704,
        544.6294759147037,
        553.3806963365091,
        551.9120134261424,
        0.11638215056049851,
        0.5099854376259678,
        0.5527862954169761,
        0.5612301457245684,
        0.5605187830951741,
        0.025317298175033896,
        2.723227733939094,
        2.9844889875681364,
        3.040155225291983,
        3.0285394669502863,
        0.014132276372084595,
        2.686478877144815,
        2.9344933002939158,
        2.985890580080423,
        2.980929207425341,
        0.012223212438736126,
        0.03674885679427827,
        0.04999568727422488,
        0.0542646452115522,
        0.09288881992165254,
        -0.35115693674664067,
        0.43839333920142065,
        0.4751142481305214,
        0.4813733531892228,
        0.4834662686668278,
        0.7468698831602122,
        0.4743575194869815,
        0.7298059507580743,
        1.1344663249564368,
        1.1344663249564368,
        0,
        7.186806072953235,
        8.602491940812488,
        9.559630749148374,
        9.200711541601793,
        0.09902711537493249,
        0,
        0,
        0,
        0,
        0,
        0,
        0,
        0,
        0,
        0,
        0.2914935483740152,
        0.31853975017080577,
        0.32523306307702815,
        0.3238526608982956,
        0.015599677285752718,
        0,
        0,
        0,
        0,
        0,
        1.2939222089240827,
        1.3912510220427365,
        1.3590233115074846,
        1.3813202218223508,
        0.12414405504118436,
        0.5676479852107426,
        0.5844773002625966,
        0.6843343222489348,
        0.6463756004409801,
        0.41118976234306226,
        17.77387076992597,
        19.094545881339215,
        19.301474108000107,
        19.298600843961452,
        0.005517563942186639,
        0,
        0,
        0,
        0,
        0,
        0,
        0,
        0,
        0,
        0,
        0,
        0,
        0,
        0,
        0,
        1.3813202218223508,
        0,
        0.3238526608982956,
        1.2771076496501346,
        1.4249156231737963,
        1.463739748645111,
        1.4441905510098785,
        0.14104265591495377
      ],
      "stds": [
        28.794260234768018,
        24.494732122477032,
        22.965781201670886,
        19.297207417472215,
        0.8548039891047078,
        1,
        1,
        1,
        1,
        13.369463309510428,
        2.0184913007313754,
        15.025875490529652,
        0.49199007535939787,
        0.26133975572234586,
        0.2460859847892952,
        0.2419746783504876,
        2.8948512130708974,
        1,
        147.7495899865193,
        0.35447083507834865,
        0.35902300221362937,
        0.5781136821673022,
        0.2846740216979081,
        0.20611077557951726,
        247.1186556336893,
        208.0163026400036,
        197.69479203933307,
        158.3271120352968,
        0.5626697962807571,
        0.19173703412717774,
        0.1275791329994687,
        0.10619401511392251,
        0.08851091149411527,
        0.2242430385728237,
        0.9560106358427038,
        0.5684585862416904,
        0.4207862131119143,
        0.36845332438038686,
        0.13695098382875953,
        0.9467185032002428,
        0.5655571702143224,
        0.4311715435547463,
        0.3706196500874449,
        0.14185291506420625,
        0.5640011917206159,
        0.5864249961708181,
        0.5814464321235657,
        0.506477708974778,
        3.083223802019729,
        0.3019913122667279,
        0.2852992728111593,
        0.28290660403285495,
        0.22313836771011095,
        2.8266383557642776,
        1.8656307521908957,
        2.2163906052593427,
        2.579076263533907,
        2.579076263533907,
        1,
        4.755216694096847,
        4.757253087671546,
        4.978717444018497,
        4.545344458567224,
        0.4810595942073737,
        1,
        1,
        1,
        1,
        1,
        1,
        1,
        1,
        1,
        1,
        0.10251842917336963,
        0.06237855861797116,
        0.05036295434303556,
        0.04287321032397078,
        0.14437194429396552,
        1,
        1,
        1,
        1,
        1,
        0.9110412581479398,
        0.8676361558829482,
        0.848318624777342,
        0.7851788288926939,
        1.7443516885499755,
        0.32115567839673365,
        0.27815221565107334,
        0.3460915167441675,
        0.2563605523888932,
        1.583925206271341,
        6.677108894269237,
        4.406989783496295,
        3.7870331252497387,
        3.6090437095288337,
        0.12025069200315129,
        1,
        1,
        1,
        1,
        1,
        1,
        1,
        1,
        1,
        1,
        1,
        1,
        1,
        1,
        1,
        0.7851788288926939,
        1,
        0.04287321032397078,
        0.6348406758355571,
        0.5596211963564671,
        0.5406790430493785,
        0.46144377976146317,
        0.9189418957406739
      ],
      "weights": [
        0.000553523135420251,
        0.006135794184055455,
        0.008560733147525269,
        0.008349699066671809,
        0.00302098445926592,
        0,
        0,
        0,
        0,
        0.0002813955098349103,
        0.005143045691549901,
        0.0071677971231781535,
        -0.004045758186722639,
        0.002429783304699787,
        0.0008366258434654067,
        -0.001485149275919908,
        0.0011426288916037584,
        0,
        0.002018695824599586,
        -0.005910576003068623,
        0.014837882528869797,
        -0.012838768865985513,
        0.003976757388891571,
        -0.013191320296341033,
        0.0005638854874396496,
        -0.0013329387241122312,
        0.00019476853312235987,
        -0.00007782098506042366,
        0.0012371377463795692,
        -0.0018014863402006386,
        -0.001872889012436239,
        -0.001325713504992356,
        -0.002250868215178139,
        0.00045408482854911495,
        -0.0038610697022065524,
        -0.0019111446205420653,
        -0.0023396532016689985,
        -0.0039466713201635195,
        0.0013575762209016148,
        -0.008366568048199793,
        -0.006948658940607588,
        -0.0043889628135483725,
        -0.00972225601777837,
        0.005366683790015269,
        0.007499205924675377,
        0.004848799653331085,
        0.0015614543490803314,
        0.003040790515402711,
        0.009702422612525493,
        -0.006249106211474138,
        -0.0025045876170847223,
        -0.005299781207848113,
        -0.006414454962929433,
        0.00005141794694289873,
        -0.003691892244557254,
        0.00392863669108696,
        0.004722064555725971,
        0.004722064555725971,
        0,
        0.0032714089554646366,
        0.0029205134806624703,
        0.0025850117599966476,
        0.0024220602549550573,
        -0.0037172615539402677,
        0,
        0,
        0,
        0,
        0,
        0,
        0,
        0,
        0,
        0,
        0.0003712763755282411,
        0.004309795283114302,
        0.003981854489561976,
        0.0038725557711358108,
        -0.0014965384527256295,
        0,
        0,
        0,
        0,
        0,
        0.0025844928955897763,
        0.007251036587501889,
        0.006118731843673063,
        0.006439372287401736,
        0.0023852345755987856,
        0.0019524680489501145,
        0.00022417336047549557,
        -0.01384857507235153,
        -0.009473637920572596,
        -0.003705921201685733,
        -0.00022240112951798228,
        0.01106833737612196,
        0.02397532991702117,
        0.018392836600452326,
        0.019331993630090732,
        0,
        0,
        0,
        0,
        0,
        0,
        0,
        0,
        0,
        0,
        0,
        0,
        0,
        0,
        0,
        0.006439372287401737,
        0,
        0.0038725557711358064,
        0.037171080851067385,
        0.04737021860501981,
        0.05852900236487927,
        0.0636371750051823,
        0.0028603186388922253
      ],
      "bias": 1.4583366663499622,
      "lambda": 1200,
      "blendWeights": {
        "ml": 0.7,
        "ewma": 0.3,
        "lag1": 0
      },
      "ewmaBlendWeight": 0.3,
      "positionGroup": "D"
    },
    {
      "target": "blocks",
      "isGoalie": false,
      "featureNames": [
        "lag1_gp",
        "lag2_gp",
        "lag3_gp",
        "ewma_gp",
        "trend_gp",
        "pos_C",
        "pos_LW",
        "pos_RW",
        "pos_D",
        "age",
        "height_in",
        "weight_lb",
        "shoots_L",
        "draft_round",
        "draft_overall_pick",
        "years_since_draft",
        "cap_hit_m",
        "contract_years_remaining",
        "coach_id_norm",
        "team_gf_pg",
        "team_ga_pg",
        "team_goal_diff_pg",
        "team_league_rank_norm",
        "teams_in_lag_window",
        "lag1_teamElo",
        "lag2_teamElo",
        "lag3_teamElo",
        "ewma_teamElo",
        "trend_teamElo",
        "lag1_teamPointPctg",
        "lag2_teamPointPctg",
        "lag3_teamPointPctg",
        "ewma_teamPointPctg",
        "trend_teamPointPctg",
        "lag1_teamGoalsForPerGame",
        "lag2_teamGoalsForPerGame",
        "lag3_teamGoalsForPerGame",
        "ewma_teamGoalsForPerGame",
        "trend_teamGoalsForPerGame",
        "lag1_teamGoalsAgainstPerGame",
        "lag2_teamGoalsAgainstPerGame",
        "lag3_teamGoalsAgainstPerGame",
        "ewma_teamGoalsAgainstPerGame",
        "trend_teamGoalsAgainstPerGame",
        "lag1_teamGoalDiffPerGame",
        "lag2_teamGoalDiffPerGame",
        "lag3_teamGoalDiffPerGame",
        "ewma_teamGoalDiffPerGame",
        "trend_teamGoalDiffPerGame",
        "lag1_teamLeagueRank",
        "lag2_teamLeagueRank",
        "lag3_teamLeagueRank",
        "ewma_teamLeagueRank",
        "trend_teamLeagueRank",
        "lag1_capHitUsd",
        "lag2_capHitUsd",
        "lag3_capHitUsd",
        "ewma_capHitUsd",
        "trend_capHitUsd",
        "lag1_coachTenureSeasons",
        "lag2_coachTenureSeasons",
        "lag3_coachTenureSeasons",
        "ewma_coachTenureSeasons",
        "trend_coachTenureSeasons",
        "lag1_blockedShotsPer60_pg",
        "lag2_blockedShotsPer60_pg",
        "lag3_blockedShotsPer60_pg",
        "ewma_blockedShotsPer60_pg",
        "trend_blockedShotsPer60_pg",
        "lag1_hitsPer60_pg",
        "lag2_hitsPer60_pg",
        "lag3_hitsPer60_pg",
        "ewma_hitsPer60_pg",
        "trend_hitsPer60_pg",
        "lag1_dZoneStartPct_pg",
        "lag2_dZoneStartPct_pg",
        "lag3_dZoneStartPct_pg",
        "ewma_dZoneStartPct_pg",
        "trend_dZoneStartPct_pg",
        "lag1_zoneStartPct5v5_pg",
        "lag2_zoneStartPct5v5_pg",
        "lag3_zoneStartPct5v5_pg",
        "ewma_zoneStartPct5v5_pg",
        "trend_zoneStartPct5v5_pg",
        "lag1_hits_pg",
        "lag2_hits_pg",
        "lag3_hits_pg",
        "ewma_hits_pg",
        "trend_hits_pg",
        "lag1_giveaways_pg",
        "lag2_giveaways_pg",
        "lag3_giveaways_pg",
        "ewma_giveaways_pg",
        "trend_giveaways_pg",
        "lag1_toiPerGame_pg",
        "lag2_toiPerGame_pg",
        "lag3_toiPerGame_pg",
        "ewma_toiPerGame_pg",
        "trend_toiPerGame_pg",
        "lag1_shiftsPerGame_pg",
        "lag2_shiftsPerGame_pg",
        "lag3_shiftsPerGame_pg",
        "ewma_shiftsPerGame_pg",
        "trend_shiftsPerGame_pg",
        "lag1_evenStrengthGoalDiff_pg",
        "lag2_evenStrengthGoalDiff_pg",
        "lag3_evenStrengthGoalDiff_pg",
        "ewma_evenStrengthGoalDiff_pg",
        "trend_evenStrengthGoalDiff_pg",
        "lag1_satRelative_pg",
        "lag2_satRelative_pg",
        "lag3_satRelative_pg",
        "ewma_satRelative_pg",
        "trend_satRelative_pg",
        "ewma_hits_cross",
        "ewma_blockedShotsPer60_cross",
        "ewma_dZoneStartPct_cross",
        "lag1_blocks_pg",
        "lag2_blocks_pg",
        "lag3_blocks_pg",
        "ewma_blocks_pg",
        "trend_blocks_pg"
      ],
      "means": [
        61.31140823593745,
        66.93356076403958,
        69.16630417237427,
        67.98462360161535,
        0.16536167723953282,
        0.47510028745184324,
        0.2917317896399746,
        0.23316792290818303,
        0,
        19.389074605970574,
        72.73303408885414,
        197.66903576943528,
        0.4555421733806493,
        0.2893928282186769,
        0.21334607570239075,
        0.4408581508550044,
        1.6476831763605877,
        0,
        117.36285945079739,
        3.072379200366178,
        3.0348703352692845,
        0.03750886509688414,
        0.49233030602397093,
        0.48289135770441655,
        517.5846708385303,
        545.6457725483073,
        552.8388844656096,
        553.5541066868433,
        0.10399361921496697,
        0.5228955161926035,
        0.5530552197089472,
        0.5609377946706023,
        0.5614753386301404,
        0.020797781031275994,
        2.786649402827709,
        2.98086566536193,
        3.0386504608228506,
        3.0303179001234195,
        0.012538296588750704,
        2.739923458158239,
        2.930451862340501,
        2.990464540609903,
        2.983010693113786,
        0.013298162518381793,
        0.04672594466946648,
        0.05041380302142271,
        0.04818592021295802,
        0.08727512115037758,
        -0.2625927742622738,
        0.4414739838893838,
        0.4728457378601362,
        0.4835467011004657,
        0.48263622635347225,
        0.7732774825050716,
        0.3256586667037223,
        0.6252638539177039,
        1.0461762238285541,
        1.0462001559842742,
        -0.00013676823346260122,
        7.317392127750206,
        8.572390999121389,
        9.57314295396909,
        9.192548055995662,
        0.11210055391842817,
        0,
        0,
        0,
        0,
        0,
        0,
        0,
        0,
        0,
        0,
        0.2972383657036915,
        0.3189337992448822,
        0.3283847070694457,
        0.32611303384665713,
        0.028873589357522975,
        0,
        0,
        0,
        0,
        0,
        1.1873280902478995,
        1.270999134960061,
        1.3085957235545354,
        1.3010563367179857,
        0.15670492942780684,
        0.39376578240147725,
        0.40125704556992015,
        0.46180395021944376,
        0.4384084173801574,
        0.4181923135350919,
        14.238640088005566,
        15.061295714771934,
        15.219861679123635,
        15.209999628637677,
        0.006226783186873266,
        0,
        0,
        0,
        0,
        0,
        0,
        0,
        0,
        0,
        0,
        0,
        0,
        0,
        0,
        0,
        1.3010563367179857,
        0,
        0.32611303384665713,
        0.4383164020412224,
        0.4790401201218205,
        0.5019413223227095,
        0.4921145879196577,
        0.2298486854851742
      ],
      "stds": [
        27.789393971312133,
        23.173420775416844,
        21.204276756471288,
        17.713219869736157,
        0.7321393626476862,
        0.49951273089883974,
        0.4546806793578216,
        0.4229609618669915,
        1,
        13.498392666258471,
        1.720023908888508,
        13.195583769968692,
        0.4981523285195569,
        0.25740582097992865,
        0.24512730409350078,
        0.24355055507026976,
        2.803144086149047,
        1,
        147.54696773141077,
        0.35329184592071244,
        0.3607211751004642,
        0.5764973319996604,
        0.28260760910153604,
        0.20875742680247875,
        238.56074890999798,
        207.56300523513528,
        195.89813782200932,
        157.68732592595987,
        0.5409270082947043,
        0.1786553429906924,
        0.12755992771400113,
        0.10441401409463032,
        0.08606254180329649,
        0.21884568072402466,
        0.8790270309289128,
        0.5718109530166204,
        0.4066007151437041,
        0.35040496991840414,
        0.13519682731884328,
        0.8701097611462577,
        0.5691535975437706,
        0.41602652904402615,
        0.3523519381101919,
        0.14231596797266824,
        0.5660611157167057,
        0.5845312678429827,
        0.5835325132834948,
        0.5096274417087503,
        3.2333290901417815,
        0.29678067306682804,
        0.2845462916689963,
        0.2805932575322967,
        0.22368831796172753,
        3.109994015718273,
        1.4518642996272875,
        1.977050749347416,
        2.441381381478392,
        2.4414517744307083,
        0.011469169871120706,
        4.723207389150162,
        4.777904966658791,
        4.973353419473393,
        4.558976402049338,
        0.5459158294461693,
        1,
        1,
        1,
        1,
        1,
        1,
        1,
        1,
        1,
        1,
        0.10366447291148963,
        0.07728752806616766,
        0.06668641353958803,
        0.057794644358687065,
        0.19803024291248691,
        1,
        1,
        1,
        1,
        1,
        0.9075142461254264,
        0.8849775027251008,
        0.8901042581154963,
        0.8301318523387972,
        0.9824206601001945,
        0.2574196885297881,
        0.2405191695820387,
        0.27745127279155796,
        0.227161438426391,
        1.7399418524696408,
        5.135942614757315,
        3.896761349096819,
        3.44932475547455,
        3.294900419772199,
        0.1307659080130761,
        1,
        1,
        1,
        1,
        1,
        1,
        1,
        1,
        1,
        1,
        1,
        1,
        1,
        1,
        1,
        0.8301318523387972,
        1,
        0.057794644358687065,
        0.2506641210879983,
        0.240586576195383,
        0.24378813064978588,
        0.20814977968304826,
        1.4456844596512024
      ],
      "weights": [
        -0.0060598421995370156,
        0.006690177760212228,
        0.028294363571750077,
        -0.03094470661687333,
        -0.003827331781583472,
        0.009886632968426104,
        -0.006651107494029131,
        -0.0045261126489135,
        0,
        -0.005678632446998694,
        0.0023666173105716367,
        0.0008240700984449255,
        -0.00026697428000379083,
        -0.029950017588627694,
        0.03205318765881456,
        0.0008553507916742545,
        0.0014160797338121968,
        0,
        0.002942707552605765,
        -0.01865948685661155,
        0.0056988282100338865,
        -0.015000819750794269,
        -0.023546721778173116,
        -0.007815479279912947,
        -0.02962426232839685,
        -0.040984713557996294,
        -0.050315165970646426,
        -0.06562692443545112,
        0.015840895257782376,
        0.02568408463008154,
        0.00856607131419495,
        0.01070762061219334,
        0.015418340484470439,
        -0.014241896668527248,
        -0.003283594827353229,
        0.0034008675186746346,
        -0.028922904212285303,
        0.06261360153087567,
        0.016497010438580467,
        -0.007177924801133903,
        -0.003983619122995475,
        -0.019761768510329132,
        0.00501455686883565,
        0.00427905741211962,
        0.005934365970764955,
        0.007205678607384364,
        -0.0060641926457230145,
        -0.00879337377414282,
        0.0058158775724330885,
        -0.008410591490490511,
        -0.029825812709354263,
        -0.03339463888535553,
        -0.03443802165378057,
        -0.0015075665161157316,
        -0.001116591817984457,
        -0.009594083816592812,
        0.004715700613565175,
        0.005173715742490049,
        0.0014409978768367452,
        0.011144796792602283,
        -0.0018983444296374074,
        0.0056582347927801565,
        -0.01215243908165623,
        -0.006410046035449312,
        0,
        0,
        0,
        0,
        0,
        0,
        0,
        0,
        0,
        0,
        -0.0005810429837695309,
        0.008847281170495798,
        0.0010041435273728647,
        0.0009504145641978026,
        0.007859493447011116,
        0,
        0,
        0,
        0,
        0,
        -0.017232225696888506,
        -0.002241365721559865,
        -0.028752960063985148,
        0.022578938795456246,
        0.006451599235842807,
        0.003109705804154658,
        0.009758434674417402,
        -0.011825104683281098,
        -0.03261667811587067,
        0.006729267461545923,
        -0.001585136079139254,
        -0.011052158270165207,
        0.04056748397232869,
        -0.0006922265543461332,
        0.0021797465209208765,
        0,
        0,
        0,
        0,
        0,
        0,
        0,
        0,
        0,
        0,
        0,
        0,
        0,
        0,
        0,
        0.02257893879545628,
        0,
        0.0009504145641977999,
        0.04522183936108766,
        0.03983627124909872,
        0.06739926773902016,
        0.026516647071641742,
        -0.0027312137634817103
      ],
      "bias": 0.5059348097680144,
      "lambda": 5,
      "blendWeights": {
        "ml": 1,
        "ewma": 0,
        "lag1": 0
      },
      "ewmaBlendWeight": 0,
      "positionGroup": "F"
    },
    {
      "target": "hits",
      "isGoalie": false,
      "featureNames": [
        "lag1_gp",
        "lag2_gp",
        "lag3_gp",
        "ewma_gp",
        "trend_gp",
        "pos_C",
        "pos_LW",
        "pos_RW",
        "pos_D",
        "age",
        "height_in",
        "weight_lb",
        "shoots_L",
        "draft_round",
        "draft_overall_pick",
        "years_since_draft",
        "cap_hit_m",
        "contract_years_remaining",
        "coach_id_norm",
        "team_gf_pg",
        "team_ga_pg",
        "team_goal_diff_pg",
        "team_league_rank_norm",
        "teams_in_lag_window",
        "lag1_teamElo",
        "lag2_teamElo",
        "lag3_teamElo",
        "ewma_teamElo",
        "trend_teamElo",
        "lag1_teamPointPctg",
        "lag2_teamPointPctg",
        "lag3_teamPointPctg",
        "ewma_teamPointPctg",
        "trend_teamPointPctg",
        "lag1_teamGoalsForPerGame",
        "lag2_teamGoalsForPerGame",
        "lag3_teamGoalsForPerGame",
        "ewma_teamGoalsForPerGame",
        "trend_teamGoalsForPerGame",
        "lag1_teamGoalsAgainstPerGame",
        "lag2_teamGoalsAgainstPerGame",
        "lag3_teamGoalsAgainstPerGame",
        "ewma_teamGoalsAgainstPerGame",
        "trend_teamGoalsAgainstPerGame",
        "lag1_teamGoalDiffPerGame",
        "lag2_teamGoalDiffPerGame",
        "lag3_teamGoalDiffPerGame",
        "ewma_teamGoalDiffPerGame",
        "trend_teamGoalDiffPerGame",
        "lag1_teamLeagueRank",
        "lag2_teamLeagueRank",
        "lag3_teamLeagueRank",
        "ewma_teamLeagueRank",
        "trend_teamLeagueRank",
        "lag1_capHitUsd",
        "lag2_capHitUsd",
        "lag3_capHitUsd",
        "ewma_capHitUsd",
        "trend_capHitUsd",
        "lag1_coachTenureSeasons",
        "lag2_coachTenureSeasons",
        "lag3_coachTenureSeasons",
        "ewma_coachTenureSeasons",
        "trend_coachTenureSeasons",
        "lag1_hitsPer60_pg",
        "lag2_hitsPer60_pg",
        "lag3_hitsPer60_pg",
        "ewma_hitsPer60_pg",
        "trend_hitsPer60_pg",
        "lag1_hits_pg",
        "lag2_hits_pg",
        "lag3_hits_pg",
        "ewma_hits_pg",
        "trend_hits_pg",
        "lag1_takeaways_pg",
        "lag2_takeaways_pg",
        "lag3_takeaways_pg",
        "ewma_takeaways_pg",
        "trend_takeaways_pg",
        "lag1_blockedShotsPer60_pg",
        "lag2_blockedShotsPer60_pg",
        "lag3_blockedShotsPer60_pg",
        "ewma_blockedShotsPer60_pg",
        "trend_blockedShotsPer60_pg",
        "lag1_toiPerGame_pg",
        "lag2_toiPerGame_pg",
        "lag3_toiPerGame_pg",
        "ewma_toiPerGame_pg",
        "trend_toiPerGame_pg",
        "lag1_giveawaysPer60_pg",
        "lag2_giveawaysPer60_pg",
        "lag3_giveawaysPer60_pg",
        "ewma_giveawaysPer60_pg",
        "trend_giveawaysPer60_pg",
        "lag1_satFor60_pg",
        "lag2_satFor60_pg",
        "lag3_satFor60_pg",
        "ewma_satFor60_pg",
        "trend_satFor60_pg",
        "lag1_shiftsPerGame_pg",
        "lag2_shiftsPerGame_pg",
        "lag3_shiftsPerGame_pg",
        "ewma_shiftsPerGame_pg",
        "trend_shiftsPerGame_pg",
        "ewma_blocks_cross",
        "ewma_hitsPer60_cross",
        "ewma_takeaways_cross",
        "lag1_hits_pg",
        "lag2_hits_pg",
        "lag3_hits_pg",
        "ewma_hits_pg",
        "trend_hits_pg"
      ],
      "means": [
        58.32603930887356,
        63.735188144375996,
        65.49158018290002,
        64.57292309718898,
        0.20218053349113638,
        0,
        0,
        0,
        1,
        19.936324830792937,
        73.47215457880863,
        201.84791182417734,
        0.4095189011116596,
        0.3045568651597506,
        0.22537254997981945,
        0.44621932045260904,
        1.7391335221933009,
        0,
        118.09375917780997,
        3.073119912262288,
        3.032942097830662,
        0.04017781443162437,
        0.4897974281293847,
        0.4777492508077766,
        502.68176520939704,
        544.6294759147037,
        553.3806963365091,
        551.9120134261424,
        0.11638215056049851,
        0.5099854376259678,
        0.5527862954169761,
        0.5612301457245684,
        0.5605187830951741,
        0.025317298175033896,
        2.723227733939094,
        2.9844889875681364,
        3.040155225291983,
        3.0285394669502863,
        0.014132276372084595,
        2.686478877144815,
        2.9344933002939158,
        2.985890580080423,
        2.980929207425341,
        0.012223212438736126,
        0.03674885679427827,
        0.04999568727422488,
        0.0542646452115522,
        0.09288881992165254,
        -0.35115693674664067,
        0.43839333920142065,
        0.4751142481305214,
        0.4813733531892228,
        0.4834662686668278,
        0.7468698831602122,
        0.4743575194869815,
        0.7298059507580743,
        1.1344663249564368,
        1.1344663249564368,
        0,
        7.186806072953235,
        8.602491940812488,
        9.559630749148374,
        9.200711541601793,
        0.09902711537493249,
        0,
        0,
        0,
        0,
        0,
        1.2939222089240827,
        1.3912510220427365,
        1.3590233115074846,
        1.3813202218223508,
        0.12414405504118436,
        0.30053505996949365,
        0.31431163049964694,
        0.3162299148616148,
        0.31806038423724226,
        0.16240990466014624,
        0,
        0,
        0,
        0,
        0,
        17.77387076992597,
        19.094545881339215,
        19.301474108000107,
        19.298600843961452,
        0.005517563942186639,
        0,
        0,
        0,
        0,
        0,
        8.783452650736633,
        9.50529253596793,
        9.71202702370094,
        9.672891406385524,
        0.027984820619104303,
        0,
        0,
        0,
        0,
        0,
        1.4441905510098785,
        0,
        0.31806038423724226,
        1.2939222089240827,
        1.3912510220427365,
        1.3590233115074846,
        1.3813202218223508,
        0.12414405504118436
      ],
      "stds": [
        28.794260234768018,
        24.494732122477032,
        22.965781201670886,
        19.297207417472215,
        0.8548039891047078,
        1,
        1,
        1,
        1,
        13.369463309510428,
        2.0184913007313754,
        15.025875490529652,
        0.49199007535939787,
        0.26133975572234586,
        0.2460859847892952,
        0.2419746783504876,
        2.8948512130708974,
        1,
        147.7495899865193,
        0.35447083507834865,
        0.35902300221362937,
        0.5781136821673022,
        0.2846740216979081,
        0.20611077557951726,
        247.1186556336893,
        208.0163026400036,
        197.69479203933307,
        158.3271120352968,
        0.5626697962807571,
        0.19173703412717774,
        0.1275791329994687,
        0.10619401511392251,
        0.08851091149411527,
        0.2242430385728237,
        0.9560106358427038,
        0.5684585862416904,
        0.4207862131119143,
        0.36845332438038686,
        0.13695098382875953,
        0.9467185032002428,
        0.5655571702143224,
        0.4311715435547463,
        0.3706196500874449,
        0.14185291506420625,
        0.5640011917206159,
        0.5864249961708181,
        0.5814464321235657,
        0.506477708974778,
        3.083223802019729,
        0.3019913122667279,
        0.2852992728111593,
        0.28290660403285495,
        0.22313836771011095,
        2.8266383557642776,
        1.8656307521908957,
        2.2163906052593427,
        2.579076263533907,
        2.579076263533907,
        1,
        4.755216694096847,
        4.757253087671546,
        4.978717444018497,
        4.545344458567224,
        0.4810595942073737,
        1,
        1,
        1,
        1,
        1,
        0.9110412581479398,
        0.8676361558829482,
        0.848318624777342,
        0.7851788288926939,
        1.7443516885499755,
        0.21094070822086647,
        0.19430946016063744,
        0.18270940750622838,
        0.16535004938794745,
        0.8548444060142227,
        1,
        1,
        1,
        1,
        1,
        6.677108894269237,
        4.406989783496295,
        3.7870331252497387,
        3.6090437095288337,
        0.12025069200315129,
        1,
        1,
        1,
        1,
        1,
        3.7135218096838702,
        2.8320271863923856,
        2.607217652023513,
        2.3897550763937505,
        0.21164888074978017,
        1,
        1,
        1,
        1,
        1,
        0.46144377976146317,
        1,
        0.16535004938794745,
        0.9110412581479398,
        0.8676361558829482,
        0.848318624777342,
        0.7851788288926939,
        1.7443516885499755
      ],
      "weights": [
        -0.047059983178368486,
        -0.02864032954604591,
        0.004987976544247463,
        0.03502958766811814,
        -0.008874231114115026,
        0,
        0,
        0,
        0,
        -0.012379658668062342,
        0.0015669136949168184,
        0.04855507235977183,
        -0.014638000338146074,
        0.019365325142541995,
        0.004112103383267132,
        -0.02412348684925919,
        -0.04151409211843054,
        0,
        -0.003847940547912118,
        0.011570824668541462,
        0.020245627756993304,
        -0.005478379553893493,
        -0.009486388385457149,
        -0.0004599518714601278,
        0.012523001093306906,
        -0.03529068170042138,
        -0.027867296320406087,
        -0.023443762601618814,
        -0.00433926182193683,
        -0.029902091396084532,
        -0.017586125606611925,
        0.09430484622394399,
        0.040531430880055896,
        -0.021131044811179407,
        0.006140246955362918,
        -0.04532124266291912,
        0.011182281127170067,
        -0.03865860115720159,
        -0.022131041129650055,
        0.0044327824315551195,
        -0.019600999904264824,
        -0.008847633012282996,
        -0.05189187740755662,
        0.008348946930837948,
        0.0029672707646216496,
        -0.025029225540333783,
        0.014653451876989812,
        -0.06122288286165388,
        0.014196001729316678,
        -0.028724719970293813,
        -0.01129827889296139,
        0.018027943340913587,
        -0.022373665282156265,
        0.03381726528843041,
        -0.013292403746409087,
        -0.0007884698311804365,
        0.00966854720205784,
        0.009668547202057792,
        0,
        -0.032126265698585,
        -0.005868214035140475,
        -0.007149004570396685,
        0.029005775643373758,
        0.0037851339142775946,
        0,
        0,
        0,
        0,
        0,
        0.03297238140711996,
        0.06331356086076402,
        0.12923179470144044,
        0.12779240766394884,
        0.012074631057463774,
        -0.0062557811147003145,
        0.003822768133625698,
        -0.032001049154622145,
        -0.0038785534886131238,
        -0.023711107217938426,
        0,
        0,
        0,
        0,
        0,
        0.05796530754271719,
        0.042743111072244454,
        -0.038813106863662225,
        0.0005959670280870036,
        0.04875297863396387,
        0,
        0,
        0,
        0,
        0,
        0.017202768057737433,
        0.0752496951233017,
        -0.028989590943126618,
        -0.012380564210644653,
        0.04000829724166456,
        0,
        0,
        0,
        0,
        0,
        -0.06258779431622902,
        0,
        -0.0038785534886131246,
        0.03297238140712022,
        0.06331356086076358,
        0.12923179470144,
        0.12779240766394895,
        0.01207463105746374
      ],
      "bias": 1.2782396497410655,
      "lambda": 25,
      "blendWeights": {
        "ml": 1,
        "ewma": 0,
        "lag1": 0
      },
      "ewmaBlendWeight": 0,
      "positionGroup": "D"
    },
    {
      "target": "hits",
      "isGoalie": false,
      "featureNames": [
        "lag1_gp",
        "lag2_gp",
        "lag3_gp",
        "ewma_gp",
        "trend_gp",
        "pos_C",
        "pos_LW",
        "pos_RW",
        "pos_D",
        "age",
        "height_in",
        "weight_lb",
        "shoots_L",
        "draft_round",
        "draft_overall_pick",
        "years_since_draft",
        "cap_hit_m",
        "contract_years_remaining",
        "coach_id_norm",
        "team_gf_pg",
        "team_ga_pg",
        "team_goal_diff_pg",
        "team_league_rank_norm",
        "teams_in_lag_window",
        "lag1_teamElo",
        "lag2_teamElo",
        "lag3_teamElo",
        "ewma_teamElo",
        "trend_teamElo",
        "lag1_teamPointPctg",
        "lag2_teamPointPctg",
        "lag3_teamPointPctg",
        "ewma_teamPointPctg",
        "trend_teamPointPctg",
        "lag1_teamGoalsForPerGame",
        "lag2_teamGoalsForPerGame",
        "lag3_teamGoalsForPerGame",
        "ewma_teamGoalsForPerGame",
        "trend_teamGoalsForPerGame",
        "lag1_teamGoalsAgainstPerGame",
        "lag2_teamGoalsAgainstPerGame",
        "lag3_teamGoalsAgainstPerGame",
        "ewma_teamGoalsAgainstPerGame",
        "trend_teamGoalsAgainstPerGame",
        "lag1_teamGoalDiffPerGame",
        "lag2_teamGoalDiffPerGame",
        "lag3_teamGoalDiffPerGame",
        "ewma_teamGoalDiffPerGame",
        "trend_teamGoalDiffPerGame",
        "lag1_teamLeagueRank",
        "lag2_teamLeagueRank",
        "lag3_teamLeagueRank",
        "ewma_teamLeagueRank",
        "trend_teamLeagueRank",
        "lag1_capHitUsd",
        "lag2_capHitUsd",
        "lag3_capHitUsd",
        "ewma_capHitUsd",
        "trend_capHitUsd",
        "lag1_coachTenureSeasons",
        "lag2_coachTenureSeasons",
        "lag3_coachTenureSeasons",
        "ewma_coachTenureSeasons",
        "trend_coachTenureSeasons",
        "lag1_hitsPer60_pg",
        "lag2_hitsPer60_pg",
        "lag3_hitsPer60_pg",
        "ewma_hitsPer60_pg",
        "trend_hitsPer60_pg",
        "lag1_hits_pg",
        "lag2_hits_pg",
        "lag3_hits_pg",
        "ewma_hits_pg",
        "trend_hits_pg",
        "lag1_takeaways_pg",
        "lag2_takeaways_pg",
        "lag3_takeaways_pg",
        "ewma_takeaways_pg",
        "trend_takeaways_pg",
        "lag1_blockedShotsPer60_pg",
        "lag2_blockedShotsPer60_pg",
        "lag3_blockedShotsPer60_pg",
        "ewma_blockedShotsPer60_pg",
        "trend_blockedShotsPer60_pg",
        "lag1_toiPerGame_pg",
        "lag2_toiPerGame_pg",
        "lag3_toiPerGame_pg",
        "ewma_toiPerGame_pg",
        "trend_toiPerGame_pg",
        "lag1_giveawaysPer60_pg",
        "lag2_giveawaysPer60_pg",
        "lag3_giveawaysPer60_pg",
        "ewma_giveawaysPer60_pg",
        "trend_giveawaysPer60_pg",
        "lag1_satFor60_pg",
        "lag2_satFor60_pg",
        "lag3_satFor60_pg",
        "ewma_satFor60_pg",
        "trend_satFor60_pg",
        "lag1_shiftsPerGame_pg",
        "lag2_shiftsPerGame_pg",
        "lag3_shiftsPerGame_pg",
        "ewma_shiftsPerGame_pg",
        "trend_shiftsPerGame_pg",
        "ewma_blocks_cross",
        "ewma_hitsPer60_cross",
        "ewma_takeaways_cross",
        "lag1_hits_pg",
        "lag2_hits_pg",
        "lag3_hits_pg",
        "ewma_hits_pg",
        "trend_hits_pg"
      ],
      "means": [
        61.31140823593745,
        66.93356076403958,
        69.16630417237427,
        67.98462360161535,
        0.16536167723953282,
        0.47510028745184324,
        0.2917317896399746,
        0.23316792290818303,
        0,
        19.389074605970574,
        72.73303408885414,
        197.66903576943528,
        0.4555421733806493,
        0.2893928282186769,
        0.21334607570239075,
        0.4408581508550044,
        1.6476831763605877,
        0,
        117.36285945079739,
        3.072379200366178,
        3.0348703352692845,
        0.03750886509688414,
        0.49233030602397093,
        0.48289135770441655,
        517.5846708385303,
        545.6457725483073,
        552.8388844656096,
        553.5541066868433,
        0.10399361921496697,
        0.5228955161926035,
        0.5530552197089472,
        0.5609377946706023,
        0.5614753386301404,
        0.020797781031275994,
        2.786649402827709,
        2.98086566536193,
        3.0386504608228506,
        3.0303179001234195,
        0.012538296588750704,
        2.739923458158239,
        2.930451862340501,
        2.990464540609903,
        2.983010693113786,
        0.013298162518381793,
        0.04672594466946648,
        0.05041380302142271,
        0.04818592021295802,
        0.08727512115037758,
        -0.2625927742622738,
        0.4414739838893838,
        0.4728457378601362,
        0.4835467011004657,
        0.48263622635347225,
        0.7732774825050716,
        0.3256586667037223,
        0.6252638539177039,
        1.0461762238285541,
        1.0462001559842742,
        -0.00013676823346260122,
        7.317392127750206,
        8.572390999121389,
        9.57314295396909,
        9.192548055995662,
        0.11210055391842817,
        0,
        0,
        0,
        0,
        0,
        1.1873280902478995,
        1.270999134960061,
        1.3085957235545354,
        1.3010563367179857,
        0.15670492942780684,
        0.4125104230471078,
        0.4293723097314519,
        0.392089892811191,
        0.4111080768177955,
        0.045076956911566254,
        0,
        0,
        0,
        0,
        0,
        14.238640088005566,
        15.061295714771934,
        15.219861679123635,
        15.209999628637677,
        0.006226783186873266,
        0,
        0,
        0,
        0,
        0,
        11.398422172208484,
        12.117373896355272,
        12.189418793013806,
        12.221367042407035,
        0.006930494741127156,
        0,
        0,
        0,
        0,
        0,
        0.4921145879196577,
        0,
        0.4111080768177955,
        1.1873280902478995,
        1.270999134960061,
        1.3085957235545354,
        1.3010563367179857,
        0.15670492942780684
      ],
      "stds": [
        27.789393971312133,
        23.173420775416844,
        21.204276756471288,
        17.713219869736157,
        0.7321393626476862,
        0.49951273089883974,
        0.4546806793578216,
        0.4229609618669915,
        1,
        13.498392666258471,
        1.720023908888508,
        13.195583769968692,
        0.4981523285195569,
        0.25740582097992865,
        0.24512730409350078,
        0.24355055507026976,
        2.803144086149047,
        1,
        147.54696773141077,
        0.35329184592071244,
        0.3607211751004642,
        0.5764973319996604,
        0.28260760910153604,
        0.20875742680247875,
        238.56074890999798,
        207.56300523513528,
        195.89813782200932,
        157.68732592595987,
        0.5409270082947043,
        0.1786553429906924,
        0.12755992771400113,
        0.10441401409463032,
        0.08606254180329649,
        0.21884568072402466,
        0.8790270309289128,
        0.5718109530166204,
        0.4066007151437041,
        0.35040496991840414,
        0.13519682731884328,
        0.8701097611462577,
        0.5691535975437706,
        0.41602652904402615,
        0.3523519381101919,
        0.14231596797266824,
        0.5660611157167057,
        0.5845312678429827,
        0.5835325132834948,
        0.5096274417087503,
        3.2333290901417815,
        0.29678067306682804,
        0.2845462916689963,
        0.2805932575322967,
        0.22368831796172753,
        3.109994015718273,
        1.4518642996272875,
        1.977050749347416,
        2.441381381478392,
        2.4414517744307083,
        0.011469169871120706,
        4.723207389150162,
        4.777904966658791,
        4.973353419473393,
        4.558976402049338,
        0.5459158294461693,
        1,
        1,
        1,
        1,
        1,
        0.9075142461254264,
        0.8849775027251008,
        0.8901042581154963,
        0.8301318523387972,
        0.9824206601001945,
        0.2393900315111446,
        0.22143016665936627,
        0.2152520336652967,
        0.1853801405144119,
        0.8744179424274061,
        1,
        1,
        1,
        1,
        1,
        5.135942614757315,
        3.896761349096819,
        3.44932475547455,
        3.294900419772199,
        0.1307659080130761,
        1,
        1,
        1,
        1,
        1,
        4.380689814574033,
        3.5173713376790623,
        3.181675223073987,
        2.9417497751543733,
        0.18297688924240932,
        1,
        1,
        1,
        1,
        1,
        0.20814977968304826,
        1,
        0.1853801405144119,
        0.9075142461254264,
        0.8849775027251008,
        0.8901042581154963,
        0.8301318523387972,
        0.9824206601001945
      ],
      "weights": [
        -0.016320731906590426,
        -0.026876212419207176,
        -0.018137358556698093,
        0.0463084760968525,
        -0.004720560443726677,
        0.003471601379815806,
        0.0006272564396530373,
        -0.0047742242238317766,
        0,
        -0.016452639234710114,
        -0.022536846898941313,
        0.030493522389182147,
        -0.0104205739572737,
        -0.06671268081088769,
        0.061802040515029515,
        -0.005783099622256465,
        -0.031862693867063786,
        0,
        -0.03074626181478468,
        -0.03603658249072904,
        -0.011986411638901868,
        -0.01458407140948284,
        -0.07097745349837035,
        -0.020986853544327718,
        -0.11080177844868969,
        -0.2759380019925807,
        -0.17223734163246568,
        -0.2064042184292404,
        -0.09249957067376172,
        0.056247775495545514,
        -0.03896343448056508,
        0.06529109127294518,
        0.12071337689007314,
        0.05419912117968384,
        0.0367330424729627,
        0.10801452282638568,
        -0.021623013294394606,
        0.023327373714513325,
        0.04075769813677024,
        0.038800727516037276,
        0.1162278713442396,
        -0.019313438319434603,
        -0.08663666515380972,
        0.0773219559691078,
        -0.0025996388881735304,
        -0.007506226124992049,
        -0.0012973226748219427,
        -0.05103679947875831,
        0.000044531188684826746,
        -0.03811597449613464,
        -0.1924273346244052,
        -0.11744333392204509,
        -0.13849784451178218,
        0.03839097169608475,
        -0.009981556338249452,
        0.012201003932740583,
        0.0002909637668418585,
        0.0018634885893447067,
        0.0023263951900553415,
        0.01451235389547639,
        -0.009415737738836897,
        0.0342322734898967,
        -0.034486669737512285,
        0.0038952316703369646,
        0,
        0,
        0,
        0,
        0,
        0.05106379182154293,
        0.046869838121923066,
        0.1363854246124941,
        0.14349709141854203,
        0.014774560662839827,
        0.032233231843460386,
        0.039848391872581296,
        0.022645478170654994,
        -0.05361040950901005,
        0.000031912105606559713,
        0,
        0,
        0,
        0,
        0,
        -0.046081967990250966,
        0.0025071578912493897,
        0.05895575190889474,
        -0.07788176393729541,
        -0.021981354661178912,
        0,
        0,
        0,
        0,
        0,
        -0.044792762531909606,
        0.0059852653746247314,
        0.021492565728196935,
        -0.008158760576367975,
        -0.006466959942778773,
        0,
        0,
        0,
        0,
        0,
        -0.021349159236439003,
        0,
        -0.05361040950901009,
        0.05106379182155083,
        0.046869838121918354,
        0.13638542461249356,
        0.14349709141854197,
        0.014774560662840159
      ],
      "bias": 1.3070712160082367,
      "lambda": 5,
      "blendWeights": {
        "ml": 1,
        "ewma": 0,
        "lag1": 0
      },
      "ewmaBlendWeight": 0,
      "positionGroup": "F"
    },
    {
      "target": "powerplayPoints",
      "isGoalie": false,
      "featureNames": [
        "lag1_gp",
        "lag2_gp",
        "lag3_gp",
        "ewma_gp",
        "trend_gp",
        "pos_C",
        "pos_LW",
        "pos_RW",
        "pos_D",
        "age",
        "height_in",
        "weight_lb",
        "shoots_L",
        "draft_round",
        "draft_overall_pick",
        "years_since_draft",
        "cap_hit_m",
        "contract_years_remaining",
        "coach_id_norm",
        "team_gf_pg",
        "team_ga_pg",
        "team_goal_diff_pg",
        "team_league_rank_norm",
        "teams_in_lag_window",
        "lag1_teamElo",
        "lag2_teamElo",
        "lag3_teamElo",
        "ewma_teamElo",
        "trend_teamElo",
        "lag1_teamPointPctg",
        "lag2_teamPointPctg",
        "lag3_teamPointPctg",
        "ewma_teamPointPctg",
        "trend_teamPointPctg",
